<?xml version="1.0"?>
<opencv_storage>
<stage12>
  <maxWeakCount>25</maxWeakCount>
  <stageThreshold>-6.2590140104293823e-01</stageThreshold>
  <weakClassifiers>
    <_>
      <internalNodes>
        0 -1 2711 7.5109568424522877e-03</internalNodes>
      <leafValues>
        6.9943286478519440e-02 5.0304508209228516e-01</leafValues></_>
    <_>
      <internalNodes>
        0 -1 18414 -7.4862304609268904e-04</internalNodes>
      <leafValues>
        2.7288728952407837e-01 -1.7123600840568542e-01</leafValues></_>
    <_>
      <internalNodes>
        0 -1 1896 7.6703783124685287e-03</internalNodes>
      <leafValues>
        -1.4958232641220093e-01 3.1779158115386963e-01</leafValues></_>
    <_>
      <internalNodes>
        0 -1 18568 5.0261057913303375e-04</internalNodes>
      <leafValues>
        -2.1966302394866943e-01 2.3729838430881500e-01</leafValues></_>
    <_>
      <internalNodes>
        0 -1 18254 3.6851782351732254e-04</internalNodes>
      <leafValues>
        -2.5350055098533630e-01 2.7128806710243225e-01</leafValues></_>
    <_>
      <internalNodes>
        0 -1 219 2.1162521839141846e-01</internalNodes>
      <leafValues>
        7.2595916688442230e-02 -7.9123300313949585e-01</leafValues></_>
    <_>
      <internalNodes>
        0 -1 13515 -7.0342384278774261e-02</internalNodes>
      <leafValues>
        -7.8302323818206787e-01 5.7632483541965485e-02</leafValues></_>
    <_>
      <internalNodes>
        0 -1 170 -4.4568363577127457e-02</internalNodes>
      <leafValues>
        -5.4537022113800049e-01 8.4444604814052582e-02</leafValues></_>
    <_>
      <internalNodes>
        0 -1 6257 -3.0305323889479041e-04</internalNodes>
      <leafValues>
        2.5289556384086609e-01 -2.0743802189826965e-01</leafValues></_>
    <_>
      <internalNodes>
        0 -1 18558 2.4287153501063585e-03</internalNodes>
      <leafValues>
        -2.0842486619949341e-01 2.4415571987628937e-01</leafValues></_>
    <_>
      <internalNodes>
        0 -1 17493 -8.3603542298078537e-03</internalNodes>
      <leafValues>
        4.9261564016342163e-01 -8.8078439235687256e-02</leafValues></_>
    <_>
      <internalNodes>
        0 -1 17581 -3.6620622267946601e-04</internalNodes>
      <leafValues>
        2.8192839026451111e-01 -1.8792678415775299e-01</leafValues></_>
    <_>
      <internalNodes>
        0 -1 14957 9.0142164845019579e-04</internalNodes>
      <leafValues>
        -1.6647614538669586e-01 2.7008160948753357e-01</leafValues></_>
    <_>
      <internalNodes>
        0 -1 2 -1.4090798795223236e-03</internalNodes>
      <leafValues>
        -4.0466600656509399e-01 1.1954717338085175e-01</leafValues></_>
    <_>
      <internalNodes>
        0 -1 8246 5.9058060287497938e-05</internalNodes>
      <leafValues>
        -2.0382702350616455e-01 2.4728885293006897e-01</leafValues></_>
    <_>
      <internalNodes>
        0 -1 10674 1.1943536251783371e-01</internalNodes>
      <leafValues>
        -7.6908268034458160e-02 5.3515350818634033e-01</leafValues></_>
    <_>
      <internalNodes>
        0 -1 13259 -2.7056440012529492e-04</internalNodes>
      <leafValues>
        2.1625523269176483e-01 -2.2953072190284729e-01</leafValues></_>
    <_>
      <internalNodes>
        0 -1 742 1.6295911744236946e-02</internalNodes>
      <leafValues>
        -2.2288770973682404e-01 2.2316257655620575e-01</leafValues></_>
    <_>
      <internalNodes>
        0 -1 16354 -1.8742044921964407e-03</internalNodes>
      <leafValues>
        2.2608819603919983e-01 -2.4430812895298004e-01</leafValues></_>
    <_>
      <internalNodes>
        0 -1 10823 -8.4541796240955591e-04</internalNodes>
      <leafValues>
        2.9490998387336731e-01 -1.6755253076553345e-01</leafValues></_>
    <_>
      <internalNodes>
        0 -1 14445 -1.3438779115676880e-01</internalNodes>
      <leafValues>
        -7.5432831048965454e-01 7.5769968330860138e-02</leafValues></_>
    <_>
      <internalNodes>
        0 -1 11630 1.4009297592565417e-04</internalNodes>
      <leafValues>
        -2.5288599729537964e-01 1.9198584556579590e-01</leafValues></_>
    <_>
      <internalNodes>
        0 -1 11896 -2.0938441157341003e-03</internalNodes>
      <leafValues>
        3.0342358350753784e-01 -1.7696164548397064e-01</leafValues></_>
    <_>
      <internalNodes>
        0 -1 18789 3.2244861125946045e-02</internalNodes>
      <leafValues>
        5.1812540739774704e-02 -9.4092786312103271e-01</leafValues></_>
    <_>
      <internalNodes>
        0 -1 11044 -4.8391606658697128e-02</internalNodes>
      <leafValues>
        6.7557680606842041e-01 -8.0655962228775024e-02</leafValues></_></weakClassifiers></stage12>
</opencv_storage>
