<?xml version="1.0"?>
<opencv_storage>
<stage4>
  <maxWeakCount>34</maxWeakCount>
  <stageThreshold>-7.5101947784423828e-01</stageThreshold>
  <weakClassifiers>
    <_>
      <internalNodes>
        0 -1 139567 4.6257320791482925e-02</internalNodes>
      <leafValues>
        1.6216216608881950e-02 5.5471700429916382e-01</leafValues></_>
    <_>
      <internalNodes>
        0 -1 154942 -1.2478920689318329e-04</internalNodes>
      <leafValues>
        3.3036282658576965e-01 -1.9245539605617523e-01</leafValues></_>
    <_>
      <internalNodes>
        0 -1 61268 4.6940863132476807e-02</internalNodes>
      <leafValues>
        -1.4397169649600983e-01 3.6606541275978088e-01</leafValues></_>
    <_>
      <internalNodes>
        0 -1 161945 7.3643703944981098e-04</internalNodes>
      <leafValues>
        -2.0272162556648254e-01 2.4953195452690125e-01</leafValues></_>
    <_>
      <internalNodes>
        0 -1 151482 -7.9065182944759727e-05</internalNodes>
      <leafValues>
        2.7573996782302856e-01 -1.8976238369941711e-01</leafValues></_>
    <_>
      <internalNodes>
        0 -1 130214 7.1886223740875721e-03</internalNodes>
      <leafValues>
        -1.1649112403392792e-01 5.6695336103439331e-01</leafValues></_>
    <_>
      <internalNodes>
        0 -1 52040 2.6837404220714234e-05</internalNodes>
      <leafValues>
        -1.8020553886890411e-01 2.3019984364509583e-01</leafValues></_>
    <_>
      <internalNodes>
        0 -1 156544 -6.1625891248695552e-05</internalNodes>
      <leafValues>
        2.3126854002475739e-01 -2.0092333853244781e-01</leafValues></_>
    <_>
      <internalNodes>
        0 -1 135590 -3.4253643825650215e-03</internalNodes>
      <leafValues>
        3.3912315964698792e-01 -1.8737776577472687e-01</leafValues></_>
    <_>
      <internalNodes>
        0 -1 131246 -1.0047588497400284e-02</internalNodes>
      <leafValues>
        7.4386894702911377e-01 -5.4351385682821274e-02</leafValues></_>
    <_>
      <internalNodes>
        0 -1 151891 -3.5187404137104750e-04</internalNodes>
      <leafValues>
        -3.5098803043365479e-01 1.4811080694198608e-01</leafValues></_>
    <_>
      <internalNodes>
        0 -1 132584 3.5964587004855275e-04</internalNodes>
      <leafValues>
        -2.2195895016193390e-01 2.3230376839637756e-01</leafValues></_>
    <_>
      <internalNodes>
        0 -1 120856 -5.9117931872606277e-02</internalNodes>
      <leafValues>
        -8.1937777996063232e-01 6.3351787626743317e-02</leafValues></_>
    <_>
      <internalNodes>
        0 -1 162022 7.5222487794235349e-05</internalNodes>
      <leafValues>
        -2.5353044271469116e-01 1.9921097159385681e-01</leafValues></_>
    <_>
      <internalNodes>
        0 -1 156188 -8.6983833461999893e-03</internalNodes>
      <leafValues>
        -4.8824846744537354e-01 8.4470279514789581e-02</leafValues></_>
    <_>
      <internalNodes>
        0 -1 159003 -8.0254874774254858e-05</internalNodes>
      <leafValues>
        2.3573514819145203e-01 -2.4147258698940277e-01</leafValues></_>
    <_>
      <internalNodes>
        0 -1 157677 4.5517380349338055e-03</internalNodes>
      <leafValues>
        -1.1779232323169708e-01 4.0045264363288879e-01</leafValues></_>
    <_>
      <internalNodes>
        0 -1 63838 1.5200482681393623e-02</internalNodes>
      <leafValues>
        -6.9858960807323456e-02 5.3634256124496460e-01</leafValues></_>
    <_>
      <internalNodes>
        0 -1 158541 -2.4311346351169050e-04</internalNodes>
      <leafValues>
        2.6029518246650696e-01 -1.6549210250377655e-01</leafValues></_>
    <_>
      <internalNodes>
        0 -1 135783 7.3210941627621651e-03</internalNodes>
      <leafValues>
        -1.4924520254135132e-01 2.7889308333396912e-01</leafValues></_>
    <_>
      <internalNodes>
        0 -1 114977 3.3674103021621704e-01</internalNodes>
      <leafValues>
        6.1031870543956757e-02 -7.9078042507171631e-01</leafValues></_>
    <_>
      <internalNodes>
        0 -1 130799 3.9697773754596710e-03</internalNodes>
      <leafValues>
        -2.3606079816818237e-01 1.9766239821910858e-01</leafValues></_>
    <_>
      <internalNodes>
        0 -1 88241 -5.2896801207680255e-05</internalNodes>
      <leafValues>
        -2.6117044687271118e-01 1.7305918037891388e-01</leafValues></_>
    <_>
      <internalNodes>
        0 -1 162257 -8.0768710176926106e-05</internalNodes>
      <leafValues>
        2.5297388434410095e-01 -1.7696917057037354e-01</leafValues></_>
    <_>
      <internalNodes>
        0 -1 142556 6.9456517696380615e-02</internalNodes>
      <leafValues>
        6.2808357179164886e-02 -6.8777060508728027e-01</leafValues></_>
    <_>
      <internalNodes>
        0 -1 162297 8.7148175225593150e-05</internalNodes>
      <leafValues>
        -1.8068303167819977e-01 2.4046541750431061e-01</leafValues></_>
    <_>
      <internalNodes>
        0 -1 25008 3.3750875445548445e-05</internalNodes>
      <leafValues>
        -1.8176938593387604e-01 2.3001275956630707e-01</leafValues></_>
    <_>
      <internalNodes>
        0 -1 64977 -3.0991481617093086e-04</internalNodes>
      <leafValues>
        -3.2157468795776367e-01 1.3519425690174103e-01</leafValues></_>
    <_>
      <internalNodes>
        0 -1 133001 -3.9347268640995026e-02</internalNodes>
      <leafValues>
        8.1510210037231445e-01 -5.1152277737855911e-02</leafValues></_>
    <_>
      <internalNodes>
        0 -1 147820 -3.1330779165728018e-05</internalNodes>
      <leafValues>
        2.1697987616062164e-01 -2.0327749848365784e-01</leafValues></_>
    <_>
      <internalNodes>
        0 -1 56198 4.7283055027946830e-04</internalNodes>
      <leafValues>
        -2.0226186513900757e-01 2.1561118960380554e-01</leafValues></_>
    <_>
      <internalNodes>
        0 -1 151655 -1.2315245112404227e-04</internalNodes>
      <leafValues>
        2.5005134940147400e-01 -1.6811268031597137e-01</leafValues></_>
    <_>
      <internalNodes>
        0 -1 114147 -3.5455428063869476e-02</internalNodes>
      <leafValues>
        -5.1226317882537842e-01 1.0656825453042984e-01</leafValues></_>
    <_>
      <internalNodes>
        0 -1 138827 -4.6643824316561222e-03</internalNodes>
      <leafValues>
        2.0726139843463898e-01 -2.2041408717632294e-01</leafValues></_></weakClassifiers></stage4>
</opencv_storage>
