<?xml version="1.0"?>
<opencv_storage>
<stage3>
  <maxWeakCount>34</maxWeakCount>
  <stageThreshold>-7.2045099735260010e-01</stageThreshold>
  <weakClassifiers>
    <_>
      <internalNodes>
        0 -1 134183 -7.6052188873291016e-02</internalNodes>
      <leafValues>
        -2.0888888835906982e-01 4.4177776575088501e-01</leafValues></_>
    <_>
      <internalNodes>
        0 -1 156903 -2.6054607587866485e-05</internalNodes>
      <leafValues>
        2.6733431220054626e-01 -2.4663092195987701e-01</leafValues></_>
    <_>
      <internalNodes>
        0 -1 11484 3.6391247704159468e-05</internalNodes>
      <leafValues>
        -2.2996573150157928e-01 2.4877695739269257e-01</leafValues></_>
    <_>
      <internalNodes>
        0 -1 97465 1.2394027784466743e-02</internalNodes>
      <leafValues>
        -1.1751969903707504e-01 4.1679576039314270e-01</leafValues></_>
    <_>
      <internalNodes>
        0 -1 138620 3.1428167858393863e-05</internalNodes>
      <leafValues>
        -2.5393709540367126e-01 2.1203528344631195e-01</leafValues></_>
    <_>
      <internalNodes>
        0 -1 87611 2.7096015401184559e-03</internalNodes>
      <leafValues>
        -2.2280402481555939e-01 2.2669459879398346e-01</leafValues></_>
    <_>
      <internalNodes>
        0 -1 105957 9.4543341547250748e-03</internalNodes>
      <leafValues>
        -1.1094515770673752e-01 4.0181720256805420e-01</leafValues></_>
    <_>
      <internalNodes>
        0 -1 157265 -8.3948936662636697e-05</internalNodes>
      <leafValues>
        1.8473355472087860e-01 -2.3665465414524078e-01</leafValues></_>
    <_>
      <internalNodes>
        0 -1 149970 1.9484549760818481e-02</internalNodes>
      <leafValues>
        -7.9790450632572174e-02 5.5602109432220459e-01</leafValues></_>
    <_>
      <internalNodes>
        0 -1 25707 1.8274910980835557e-03</internalNodes>
      <leafValues>
        -1.4841479063034058e-01 3.0801111459732056e-01</leafValues></_>
    <_>
      <internalNodes>
        0 -1 158979 4.8239127499982715e-04</internalNodes>
      <leafValues>
        -1.6611208021640778e-01 2.6914337277412415e-01</leafValues></_>
    <_>
      <internalNodes>
        0 -1 35270 2.8011486865580082e-03</internalNodes>
      <leafValues>
        -1.2962180376052856e-01 3.5220664739608765e-01</leafValues></_>
    <_>
      <internalNodes>
        0 -1 1890 1.6238367557525635e-01</internalNodes>
      <leafValues>
        6.4448595046997070e-02 -6.8260240554809570e-01</leafValues></_>
    <_>
      <internalNodes>
        0 -1 80772 -2.0577746909111738e-04</internalNodes>
      <leafValues>
        -3.0972298979759216e-01 1.2518127262592316e-01</leafValues></_>
    <_>
      <internalNodes>
        0 -1 157498 8.3690829342231154e-05</internalNodes>
      <leafValues>
        -1.8110823631286621e-01 2.3711346089839935e-01</leafValues></_>
    <_>
      <internalNodes>
        0 -1 147766 2.9868729412555695e-02</internalNodes>
      <leafValues>
        8.1519849598407745e-02 -6.4769577980041504e-01</leafValues></_>
    <_>
      <internalNodes>
        0 -1 161146 -3.3216951123904437e-05</internalNodes>
      <leafValues>
        2.1238671243190765e-01 -2.3911757767200470e-01</leafValues></_>
    <_>
      <internalNodes>
        0 -1 142881 7.5273984111845493e-04</internalNodes>
      <leafValues>
        -2.3430700600147247e-01 2.1187596023082733e-01</leafValues></_>
    <_>
      <internalNodes>
        0 -1 162289 3.7385866744443774e-04</internalNodes>
      <leafValues>
        -1.3182453811168671e-01 3.2953879237174988e-01</leafValues></_>
    <_>
      <internalNodes>
        0 -1 130574 9.3904398381710052e-03</internalNodes>
      <leafValues>
        -6.1889197677373886e-02 7.1864926815032959e-01</leafValues></_>
    <_>
      <internalNodes>
        0 -1 148176 -8.6930507677607238e-05</internalNodes>
      <leafValues>
        2.4320963025093079e-01 -1.6496513783931732e-01</leafValues></_>
    <_>
      <internalNodes>
        0 -1 143075 -9.4052162021398544e-03</internalNodes>
      <leafValues>
        -4.5424190163612366e-01 9.9689468741416931e-02</leafValues></_>
    <_>
      <internalNodes>
        0 -1 76273 -3.5432636650511995e-05</internalNodes>
      <leafValues>
        2.9319423437118530e-01 -1.4257828891277313e-01</leafValues></_>
    <_>
      <internalNodes>
        0 -1 147963 1.6620419919490814e-03</internalNodes>
      <leafValues>
        -1.6394250094890594e-01 2.5161346793174744e-01</leafValues></_>
    <_>
      <internalNodes>
        0 -1 159550 -3.4184852847829461e-04</internalNodes>
      <leafValues>
        2.9679447412490845e-01 -1.3927225768566132e-01</leafValues></_>
    <_>
      <internalNodes>
        0 -1 159597 1.4414440374821424e-04</internalNodes>
      <leafValues>
        -1.6190734505653381e-01 2.5434315204620361e-01</leafValues></_>
    <_>
      <internalNodes>
        0 -1 117313 -1.1488155275583267e-01</internalNodes>
      <leafValues>
        -8.3017039299011230e-01 5.8220084756612778e-02</leafValues></_>
    <_>
      <internalNodes>
        0 -1 80764 -2.8174790713819675e-05</internalNodes>
      <leafValues>
        2.3657843470573425e-01 -1.7311060428619385e-01</leafValues></_>
    <_>
      <internalNodes>
        0 -1 138859 9.6782401669770479e-04</internalNodes>
      <leafValues>
        -1.6388101875782013e-01 2.4911294877529144e-01</leafValues></_>
    <_>
      <internalNodes>
        0 -1 162335 -3.3718464692356065e-05</internalNodes>
      <leafValues>
        2.5344902276992798e-01 -1.5824943780899048e-01</leafValues></_>
    <_>
      <internalNodes>
        0 -1 112588 -2.5937996804714203e-02</internalNodes>
      <leafValues>
        -4.8899674415588379e-01 9.2889189720153809e-02</leafValues></_>
    <_>
      <internalNodes>
        0 -1 113889 1.2048108503222466e-02</internalNodes>
      <leafValues>
        -1.1291450262069702e-01 4.1857615113258362e-01</leafValues></_>
    <_>
      <internalNodes>
        0 -1 139001 -8.1310310633853078e-05</internalNodes>
      <leafValues>
        2.0880860090255737e-01 -1.8499433994293213e-01</leafValues></_>
    <_>
      <internalNodes>
        0 -1 89811 2.8247783120605163e-05</internalNodes>
      <leafValues>
        -2.1574380993843079e-01 2.1245005726814270e-01</leafValues></_></weakClassifiers></stage3>
</opencv_storage>
