<?xml version="1.0"?>
<opencv_storage>
<stage9>
  <maxWeakCount>31</maxWeakCount>
  <stageThreshold>-7.0899730920791626e-01</stageThreshold>
  <weakClassifiers>
    <_>
      <internalNodes>
        0 -1 4253 -1.4207944273948669e-02</internalNodes>
      <leafValues>
        4.9048626422882080e-01 -3.4653466194868088e-02</leafValues></_>
    <_>
      <internalNodes>
        0 -1 340 1.4327594637870789e-01</internalNodes>
      <leafValues>
        -1.4694349467754364e-01 3.7566009163856506e-01</leafValues></_>
    <_>
      <internalNodes>
        0 -1 18624 -2.8991160797886550e-04</internalNodes>
      <leafValues>
        2.2233054041862488e-01 -2.6845911145210266e-01</leafValues></_>
    <_>
      <internalNodes>
        0 -1 18720 6.2586495187133551e-04</internalNodes>
      <leafValues>
        -2.0789171755313873e-01 2.6609051227569580e-01</leafValues></_>
    <_>
      <internalNodes>
        0 -1 2278 6.2653962231706828e-05</internalNodes>
      <leafValues>
        -2.6471424102783203e-01 2.4020192027091980e-01</leafValues></_>
    <_>
      <internalNodes>
        0 -1 18016 -2.5091308634728193e-04</internalNodes>
      <leafValues>
        2.8879693150520325e-01 -1.9602100551128387e-01</leafValues></_>
    <_>
      <internalNodes>
        0 -1 7887 2.7623066678643227e-02</internalNodes>
      <leafValues>
        -1.0845584422349930e-01 5.2663034200668335e-01</leafValues></_>
    <_>
      <internalNodes>
        0 -1 9721 6.2363680626731366e-05</internalNodes>
      <leafValues>
        -2.6235345005989075e-01 2.1325486898422241e-01</leafValues></_>
    <_>
      <internalNodes>
        0 -1 6497 -3.1887349905446172e-04</internalNodes>
      <leafValues>
        2.9368871450424194e-01 -1.9113135337829590e-01</leafValues></_>
    <_>
      <internalNodes>
        0 -1 6 2.3323321714997292e-02</internalNodes>
      <leafValues>
        7.3247581720352173e-02 -7.6609712839126587e-01</leafValues></_>
    <_>
      <internalNodes>
        0 -1 12985 1.3863935600966215e-04</internalNodes>
      <leafValues>
        -2.2599633038043976e-01 2.2559249401092529e-01</leafValues></_>
    <_>
      <internalNodes>
        0 -1 7194 6.3280761241912842e-02</internalNodes>
      <leafValues>
        1.1120615899562836e-01 -4.8124390840530396e-01</leafValues></_>
    <_>
      <internalNodes>
        0 -1 18789 3.0313838273286819e-02</internalNodes>
      <leafValues>
        4.4766746461391449e-02 -8.9149242639541626e-01</leafValues></_>
    <_>
      <internalNodes>
        0 -1 18712 1.4482683036476374e-04</internalNodes>
      <leafValues>
        -2.6015770435333252e-01 2.2869428992271423e-01</leafValues></_>
    <_>
      <internalNodes>
        0 -1 18277 -8.4727928042411804e-03</internalNodes>
      <leafValues>
        3.2148543000221252e-01 -1.7559328675270081e-01</leafValues></_>
    <_>
      <internalNodes>
        0 -1 9724 5.8345438446849585e-05</internalNodes>
      <leafValues>
        -2.0142804086208344e-01 2.3516868054866791e-01</leafValues></_>
    <_>
      <internalNodes>
        0 -1 8886 -5.8567307889461517e-02</internalNodes>
      <leafValues>
        -2.9829061031341553e-01 1.7119011282920837e-01</leafValues></_>
    <_>
      <internalNodes>
        0 -1 12186 -6.2283797888085246e-05</internalNodes>
      <leafValues>
        2.6069682836532593e-01 -1.9858206808567047e-01</leafValues></_>
    <_>
      <internalNodes>
        0 -1 4850 -4.9787878990173340e-02</internalNodes>
      <leafValues>
        -6.5162062644958496e-01 8.8588699698448181e-02</leafValues></_>
    <_>
      <internalNodes>
        0 -1 1250 -5.4868967708898708e-05</internalNodes>
      <leafValues>
        2.2555644810199738e-01 -2.2763231396675110e-01</leafValues></_>
    <_>
      <internalNodes>
        0 -1 2410 -5.8898436691379175e-05</internalNodes>
      <leafValues>
        2.8710764646530151e-01 -1.8602132797241211e-01</leafValues></_>
    <_>
      <internalNodes>
        0 -1 4432 5.6093231250997633e-05</internalNodes>
      <leafValues>
        -2.2114616632461548e-01 2.1801318228244781e-01</leafValues></_>
    <_>
      <internalNodes>
        0 -1 12908 1.4402386546134949e-01</internalNodes>
      <leafValues>
        -6.6356517374515533e-02 7.5414699316024780e-01</leafValues></_>
    <_>
      <internalNodes>
        0 -1 17385 9.1976654948666692e-04</internalNodes>
      <leafValues>
        -1.7693184316158295e-01 3.2859942317008972e-01</leafValues></_>
    <_>
      <internalNodes>
        0 -1 6079 1.0576193034648895e-01</internalNodes>
      <leafValues>
        -1.2926000356674194e-01 3.7572145462036133e-01</leafValues></_>
    <_>
      <internalNodes>
        0 -1 16333 1.2275551853235811e-04</internalNodes>
      <leafValues>
        -1.9071803987026215e-01 2.5202938914299011e-01</leafValues></_>
    <_>
      <internalNodes>
        0 -1 2279 1.3118574861437082e-04</internalNodes>
      <leafValues>
        -2.2179394960403442e-01 2.3921266198158264e-01</leafValues></_>
    <_>
      <internalNodes>
        0 -1 750 2.1991064772009850e-02</internalNodes>
      <leafValues>
        -2.2559863328933716e-01 2.3020412027835846e-01</leafValues></_>
    <_>
      <internalNodes>
        0 -1 4431 -7.0925692853052169e-05</internalNodes>
      <leafValues>
        2.6718068122863770e-01 -2.2219006717205048e-01</leafValues></_>
    <_>
      <internalNodes>
        0 -1 18063 1.7335243523120880e-02</internalNodes>
      <leafValues>
        -1.3773393630981445e-01 3.5592859983444214e-01</leafValues></_>
    <_>
      <internalNodes>
        0 -1 18623 7.1184040280058980e-04</internalNodes>
      <leafValues>
        -1.8498000502586365e-01 3.0142685770988464e-01</leafValues></_></weakClassifiers></stage9>
</opencv_storage>
