<?xml version="1.0"?>
<opencv_storage>
<stage0>
  <maxWeakCount>13</maxWeakCount>
  <stageThreshold>-7.8051561117172241e-01</stageThreshold>
  <weakClassifiers>
    <_>
      <internalNodes>
        0 -1 13864 -5.7519771158695221e-02</internalNodes>
      <leafValues>
        7.7058821916580200e-01 -1.1044776439666748e-01</leafValues></_>
    <_>
      <internalNodes>
        0 -1 17935 -9.5544033683836460e-04</internalNodes>
      <leafValues>
        5.7407462596893311e-01 -2.6125991344451904e-01</leafValues></_>
    <_>
      <internalNodes>
        0 -1 2713 9.0406924486160278e-02</internalNodes>
      <leafValues>
        -2.9099652171134949e-01 5.6943035125732422e-01</leafValues></_>
    <_>
      <internalNodes>
        0 -1 11622 -3.6062344908714294e-02</internalNodes>
      <leafValues>
        5.0129497051239014e-01 -3.2111385464668274e-01</leafValues></_>
    <_>
      <internalNodes>
        0 -1 18251 -1.0342081077396870e-03</internalNodes>
      <leafValues>
        5.0886541604995728e-01 -2.5860169529914856e-01</leafValues></_>
    <_>
      <internalNodes>
        0 -1 17788 1.1575961252674460e-03</internalNodes>
      <leafValues>
        -2.5777581334114075e-01 4.6209540963172913e-01</leafValues></_>
    <_>
      <internalNodes>
        0 -1 3421 2.6539260521531105e-02</internalNodes>
      <leafValues>
        -2.1681900322437286e-01 5.6443160772323608e-01</leafValues></_>
    <_>
      <internalNodes>
        0 -1 9160 -9.4332970911636949e-04</internalNodes>
      <leafValues>
        4.5524668693542480e-01 -2.6859492063522339e-01</leafValues></_>
    <_>
      <internalNodes>
        0 -1 11943 1.3780309818685055e-03</internalNodes>
      <leafValues>
        -2.5307562947273254e-01 3.8712662458419800e-01</leafValues></_>
    <_>
      <internalNodes>
        0 -1 17741 2.3366030305624008e-02</internalNodes>
      <leafValues>
        1.7259436845779419e-01 -7.0697063207626343e-01</leafValues></_>
    <_>
      <internalNodes>
        0 -1 18774 -1.2060098815709352e-03</internalNodes>
      <leafValues>
        4.2554050683975220e-01 -2.4040412902832031e-01</leafValues></_>
    <_>
      <internalNodes>
        0 -1 18293 -1.0775731643661857e-03</internalNodes>
      <leafValues>
        4.2032122611999512e-01 -2.3534205555915833e-01</leafValues></_>
    <_>
      <internalNodes>
        0 -1 7498 -8.0437492579221725e-04</internalNodes>
      <leafValues>
        4.5196625590324402e-01 -2.0986376702785492e-01</leafValues></_></weakClassifiers></stage0>
</opencv_storage>
