<?xml version="1.0"?>
<opencv_storage>
<stage14>
  <maxWeakCount>23</maxWeakCount>
  <stageThreshold>-7.4866700172424316e-01</stageThreshold>
  <weakClassifiers>
    <_>
      <internalNodes>
        0 -1 75013 5.4466210305690765e-02</internalNodes>
      <leafValues>
        4.0361919999122620e-01 -7.9746836423873901e-01</leafValues></_>
    <_>
      <internalNodes>
        0 -1 49368 -1.2792194320354611e-04</internalNodes>
      <leafValues>
        3.0643588304519653e-01 -2.3729182779788971e-01</leafValues></_>
    <_>
      <internalNodes>
        0 -1 32492 6.1833612620830536e-02</internalNodes>
      <leafValues>
        -2.5991490483283997e-01 2.4516002833843231e-01</leafValues></_>
    <_>
      <internalNodes>
        0 -1 78393 2.6144527510041371e-05</internalNodes>
      <leafValues>
        -2.9366543889045715e-01 2.1243093907833099e-01</leafValues></_>
    <_>
      <internalNodes>
        0 -1 33427 6.2358070863410830e-04</internalNodes>
      <leafValues>
        -1.5989293158054352e-01 3.6310222744941711e-01</leafValues></_>
    <_>
      <internalNodes>
        0 -1 4878 2.9812585562467575e-03</internalNodes>
      <leafValues>
        -1.6334752738475800e-01 3.8152420520782471e-01</leafValues></_>
    <_>
      <internalNodes>
        0 -1 60619 -6.9532394409179688e-02</internalNodes>
      <leafValues>
        8.4411400556564331e-01 -9.4563856720924377e-02</leafValues></_>
    <_>
      <internalNodes>
        0 -1 74752 5.0509877502918243e-02</internalNodes>
      <leafValues>
        1.1405511945486069e-01 -6.6514831781387329e-01</leafValues></_>
    <_>
      <internalNodes>
        0 -1 77234 -1.6426353249698877e-04</internalNodes>
      <leafValues>
        2.3461776971817017e-01 -2.6085889339447021e-01</leafValues></_>
    <_>
      <internalNodes>
        0 -1 31913 5.8676213026046753e-02</internalNodes>
      <leafValues>
        -9.7828336060047150e-02 6.5122967958450317e-01</leafValues></_>
    <_>
      <internalNodes>
        0 -1 61837 1.4471799135208130e-02</internalNodes>
      <leafValues>
        -1.3647869229316711e-01 4.8897141218185425e-01</leafValues></_>
    <_>
      <internalNodes>
        0 -1 49367 1.0865431977435946e-04</internalNodes>
      <leafValues>
        -2.9222273826599121e-01 2.3859266936779022e-01</leafValues></_>
    <_>
      <internalNodes>
        0 -1 46977 4.6434793621301651e-03</internalNodes>
      <leafValues>
        -1.0343860089778900e-01 5.9506583213806152e-01</leafValues></_>
    <_>
      <internalNodes>
        0 -1 36710 -2.3855515755712986e-03</internalNodes>
      <leafValues>
        4.6851328015327454e-01 -1.5678831934928894e-01</leafValues></_>
    <_>
      <internalNodes>
        0 -1 56099 -2.5764936581254005e-03</internalNodes>
      <leafValues>
        3.7590911984443665e-01 -1.6040144860744476e-01</leafValues></_>
    <_>
      <internalNodes>
        0 -1 60307 -1.4674868434667587e-03</internalNodes>
      <leafValues>
        3.2371601462364197e-01 -1.6783194243907928e-01</leafValues></_>
    <_>
      <internalNodes>
        0 -1 58353 1.4052793267183006e-04</internalNodes>
      <leafValues>
        -2.2897973656654358e-01 2.2629211843013763e-01</leafValues></_>
    <_>
      <internalNodes>
        0 -1 77411 9.2604325618594885e-04</internalNodes>
      <leafValues>
        -1.6247968375682831e-01 3.6645284295082092e-01</leafValues></_>
    <_>
      <internalNodes>
        0 -1 24939 -3.0920994281768799e-01</internalNodes>
      <leafValues>
        -8.6197525262832642e-01 6.4968936145305634e-02</leafValues></_>
    <_>
      <internalNodes>
        0 -1 50411 -3.4760549664497375e-02</internalNodes>
      <leafValues>
        -3.8986444473266602e-01 1.3556288182735443e-01</leafValues></_>
    <_>
      <internalNodes>
        0 -1 62053 -1.2378388782963157e-04</internalNodes>
      <leafValues>
        2.6062428951263428e-01 -2.9093235731124878e-01</leafValues></_>
    <_>
      <internalNodes>
        0 -1 23774 -3.9048837497830391e-03</internalNodes>
      <leafValues>
        4.2841154336929321e-01 -1.3865192234516144e-01</leafValues></_>
    <_>
      <internalNodes>
        0 -1 41433 5.4989792406558990e-03</internalNodes>
      <leafValues>
        -1.0490472614765167e-01 6.3522082567214966e-01</leafValues></_></weakClassifiers></stage14>
</opencv_storage>
