<?xml version="1.0"?>
<opencv_storage>
<stage6>
  <maxWeakCount>24</maxWeakCount>
  <stageThreshold>-8.9569538831710815e-01</stageThreshold>
  <weakClassifiers>
    <_>
      <internalNodes>
        0 -1 73309 -5.6466000387445092e-05</internalNodes>
      <leafValues>
        5.5784064531326294e-01 2.7972027659416199e-02</leafValues></_>
    <_>
      <internalNodes>
        0 -1 49520 1.7862439563032240e-04</internalNodes>
      <leafValues>
        -2.6050469279289246e-01 2.8939968347549438e-01</leafValues></_>
    <_>
      <internalNodes>
        0 -1 6400 1.5888919588178396e-03</internalNodes>
      <leafValues>
        -2.0086906850337982e-01 3.3936595916748047e-01</leafValues></_>
    <_>
      <internalNodes>
        0 -1 57786 5.4366046242648736e-05</internalNodes>
      <leafValues>
        -2.7486470341682434e-01 2.5425463914871216e-01</leafValues></_>
    <_>
      <internalNodes>
        0 -1 76638 3.5136984661221504e-04</internalNodes>
      <leafValues>
        -2.3870064318180084e-01 3.0594891309738159e-01</leafValues></_>
    <_>
      <internalNodes>
        0 -1 64408 -5.4047361016273499e-02</internalNodes>
      <leafValues>
        8.6044293642044067e-01 -9.2738717794418335e-02</leafValues></_>
    <_>
      <internalNodes>
        0 -1 9527 6.8053267896175385e-03</internalNodes>
      <leafValues>
        -1.5740272402763367e-01 3.8700082898139954e-01</leafValues></_>
    <_>
      <internalNodes>
        0 -1 67034 2.7649517869576812e-04</internalNodes>
      <leafValues>
        -2.3818485438823700e-01 2.9967433214187622e-01</leafValues></_>
    <_>
      <internalNodes>
        0 -1 51995 -1.3957236660644412e-04</internalNodes>
      <leafValues>
        3.6650770902633667e-01 -1.7896103858947754e-01</leafValues></_>
    <_>
      <internalNodes>
        0 -1 77237 1.9762685406021774e-04</internalNodes>
      <leafValues>
        -2.4664112925529480e-01 2.6299962401390076e-01</leafValues></_>
    <_>
      <internalNodes>
        0 -1 735 1.0863206535577774e-01</internalNodes>
      <leafValues>
        -3.0545911192893982e-01 2.3734278976917267e-01</leafValues></_>
    <_>
      <internalNodes>
        0 -1 77093 -1.3656458759214729e-04</internalNodes>
      <leafValues>
        3.3450335264205933e-01 -2.1216337382793427e-01</leafValues></_>
    <_>
      <internalNodes>
        0 -1 55938 2.6286220178008080e-02</internalNodes>
      <leafValues>
        -1.3388049602508545e-01 5.3218048810958862e-01</leafValues></_>
    <_>
      <internalNodes>
        0 -1 49405 4.6467934735119343e-03</internalNodes>
      <leafValues>
        -2.4043795466423035e-01 2.8675237298011780e-01</leafValues></_>
    <_>
      <internalNodes>
        0 -1 43264 4.2158160358667374e-03</internalNodes>
      <leafValues>
        -1.5809865295886993e-01 4.3105092644691467e-01</leafValues></_>
    <_>
      <internalNodes>
        0 -1 6345 2.8066501021385193e-02</internalNodes>
      <leafValues>
        -1.6434338688850403e-01 4.2018961906433105e-01</leafValues></_>
    <_>
      <internalNodes>
        0 -1 65202 -4.9355345254298300e-05</internalNodes>
      <leafValues>
        2.8613835573196411e-01 -2.6099675893783569e-01</leafValues></_>
    <_>
      <internalNodes>
        0 -1 14106 4.8537815018789843e-05</internalNodes>
      <leafValues>
        -2.6198595762252808e-01 2.8040614724159241e-01</leafValues></_>
    <_>
      <internalNodes>
        0 -1 25377 -5.7100995036307722e-05</internalNodes>
      <leafValues>
        3.0976647138595581e-01 -2.4238014221191406e-01</leafValues></_>
    <_>
      <internalNodes>
        0 -1 21115 1.4142750296741724e-03</internalNodes>
      <leafValues>
        -1.8666040897369385e-01 4.1837111115455627e-01</leafValues></_>
    <_>
      <internalNodes>
        0 -1 12210 6.2049324624240398e-03</internalNodes>
      <leafValues>
        -2.1994183957576752e-01 3.4884205460548401e-01</leafValues></_>
    <_>
      <internalNodes>
        0 -1 70569 2.2836105927126482e-05</internalNodes>
      <leafValues>
        -2.5404366850852966e-01 2.6778292655944824e-01</leafValues></_>
    <_>
      <internalNodes>
        0 -1 74473 3.6970863584429026e-04</internalNodes>
      <leafValues>
        -2.3797823488712311e-01 2.9207807779312134e-01</leafValues></_>
    <_>
      <internalNodes>
        0 -1 3417 -3.1809948384761810e-02</internalNodes>
      <leafValues>
        5.6293135881423950e-01 -1.0833902657032013e-01</leafValues></_></weakClassifiers></stage6>
</opencv_storage>
