<?xml version="1.0"?>
<opencv_storage>
<stage14>
  <maxWeakCount>31</maxWeakCount>
  <stageThreshold>-6.5848171710968018e-01</stageThreshold>
  <weakClassifiers>
    <_>
      <internalNodes>
        0 -1 310 8.4575980901718140e-02</internalNodes>
      <leafValues>
        1.2841530144214630e-01 5.7605177164077759e-01</leafValues></_>
    <_>
      <internalNodes>
        0 -1 15689 1.0976580902934074e-02</internalNodes>
      <leafValues>
        9.7776934504508972e-02 -7.6754713058471680e-01</leafValues></_>
    <_>
      <internalNodes>
        0 -1 14958 -9.7490439657121897e-04</internalNodes>
      <leafValues>
        3.1660306453704834e-01 -1.8140283226966858e-01</leafValues></_>
    <_>
      <internalNodes>
        0 -1 13260 1.6058044275268912e-04</internalNodes>
      <leafValues>
        -2.5324738025665283e-01 2.2816434502601624e-01</leafValues></_>
    <_>
      <internalNodes>
        0 -1 14573 7.6389461755752563e-03</internalNodes>
      <leafValues>
        -3.0896633863449097e-01 1.6052974760532379e-01</leafValues></_>
    <_>
      <internalNodes>
        0 -1 8676 4.1718095541000366e-02</internalNodes>
      <leafValues>
        1.0224252194166183e-01 -5.0759631395339966e-01</leafValues></_>
    <_>
      <internalNodes>
        0 -1 3337 2.1395657211542130e-02</internalNodes>
      <leafValues>
        -1.3368685543537140e-01 4.2093461751937866e-01</leafValues></_>
    <_>
      <internalNodes>
        0 -1 16937 1.3033519499003887e-02</internalNodes>
      <leafValues>
        -8.7212197482585907e-02 4.9318403005599976e-01</leafValues></_>
    <_>
      <internalNodes>
        0 -1 12776 1.0364036075770855e-02</internalNodes>
      <leafValues>
        -1.3702173531055450e-01 3.8557049632072449e-01</leafValues></_>
    <_>
      <internalNodes>
        0 -1 348 6.4874384552240372e-03</internalNodes>
      <leafValues>
        8.7367512285709381e-02 -5.9603172540664673e-01</leafValues></_>
    <_>
      <internalNodes>
        0 -1 4165 -2.5852289982140064e-03</internalNodes>
      <leafValues>
        2.8408885002136230e-01 -1.6870871186256409e-01</leafValues></_>
    <_>
      <internalNodes>
        0 -1 4108 7.4919536709785461e-02</internalNodes>
      <leafValues>
        8.6515672504901886e-02 -6.1142390966415405e-01</leafValues></_>
    <_>
      <internalNodes>
        0 -1 17792 -5.4038490634411573e-04</internalNodes>
      <leafValues>
        2.1554736793041229e-01 -2.1607665717601776e-01</leafValues></_>
    <_>
      <internalNodes>
        0 -1 2166 3.2965824007987976e-02</internalNodes>
      <leafValues>
        -1.2660545110702515e-01 3.9074134826660156e-01</leafValues></_>
    <_>
      <internalNodes>
        0 -1 13189 -1.3593467883765697e-04</internalNodes>
      <leafValues>
        2.0766374468803406e-01 -2.7182629704475403e-01</leafValues></_>
    <_>
      <internalNodes>
        0 -1 6650 -2.8091200510971248e-04</internalNodes>
      <leafValues>
        2.5148439407348633e-01 -1.9483201205730438e-01</leafValues></_>
    <_>
      <internalNodes>
        0 -1 8385 1.3099933858029544e-04</internalNodes>
      <leafValues>
        -2.0645800232887268e-01 2.7463880181312561e-01</leafValues></_>
    <_>
      <internalNodes>
        0 -1 729 6.8557402119040489e-03</internalNodes>
      <leafValues>
        -2.3012682795524597e-01 1.9295831024646759e-01</leafValues></_>
    <_>
      <internalNodes>
        0 -1 2450 6.0651442036032677e-03</internalNodes>
      <leafValues>
        1.3557720184326172e-01 -3.5072168707847595e-01</leafValues></_>
    <_>
      <internalNodes>
        0 -1 10827 1.1577793629840016e-03</internalNodes>
      <leafValues>
        -1.7282824218273163e-01 2.8577086329460144e-01</leafValues></_>
    <_>
      <internalNodes>
        0 -1 18253 -3.2853074371814728e-03</internalNodes>
      <leafValues>
        3.6832755804061890e-01 -1.2357116490602493e-01</leafValues></_>
    <_>
      <internalNodes>
        0 -1 145 1.0237182676792145e-01</internalNodes>
      <leafValues>
        1.0160252451896667e-01 -4.1639429330825806e-01</leafValues></_>
    <_>
      <internalNodes>
        0 -1 5521 1.2818040326237679e-02</internalNodes>
      <leafValues>
        -1.6326144337654114e-01 3.0133974552154541e-01</leafValues></_>
    <_>
      <internalNodes>
        0 -1 95 1.0667362809181213e-01</internalNodes>
      <leafValues>
        7.0218689739704132e-02 -7.8871446847915649e-01</leafValues></_>
    <_>
      <internalNodes>
        0 -1 685 2.3802516807336360e-04</internalNodes>
      <leafValues>
        -2.0633821189403534e-01 2.0778399705886841e-01</leafValues></_>
    <_>
      <internalNodes>
        0 -1 10600 -3.4083984792232513e-03</internalNodes>
      <leafValues>
        3.1915426254272461e-01 -1.4045873284339905e-01</leafValues></_>
    <_>
      <internalNodes>
        0 -1 6888 -2.5794395804405212e-01</internalNodes>
      <leafValues>
        -7.7957355976104736e-01 6.8007707595825195e-02</leafValues></_>
    <_>
      <internalNodes>
        0 -1 16905 -5.5334819480776787e-03</internalNodes>
      <leafValues>
        -5.6653749942779541e-01 6.2261004000902176e-02</leafValues></_>
    <_>
      <internalNodes>
        0 -1 7194 1.4029206335544586e-01</internalNodes>
      <leafValues>
        5.5683333426713943e-02 -6.9607967138290405e-01</leafValues></_>
    <_>
      <internalNodes>
        0 -1 18712 1.7219196888618171e-04</internalNodes>
      <leafValues>
        -2.2669282555580139e-01 2.1450647711753845e-01</leafValues></_>
    <_>
      <internalNodes>
        0 -1 18714 -4.6950234100222588e-03</internalNodes>
      <leafValues>
        -4.6882170438766479e-01 1.0372757166624069e-01</leafValues></_></weakClassifiers></stage14>
</opencv_storage>
