<?xml version="1.0"?>
<opencv_storage>
<stage3>
  <maxWeakCount>16</maxWeakCount>
  <stageThreshold>-8.1557852029800415e-01</stageThreshold>
  <weakClassifiers>
    <_>
      <internalNodes>
        0 -1 17362 -1.0150905291084200e-04</internalNodes>
      <leafValues>
        6.3809525966644287e-01 -3.0894309282302856e-02</leafValues></_>
    <_>
      <internalNodes>
        0 -1 9870 1.1269576498307288e-04</internalNodes>
      <leafValues>
        -3.1799376010894775e-01 3.4934371709823608e-01</leafValues></_>
    <_>
      <internalNodes>
        0 -1 10276 -3.3380050444975495e-04</internalNodes>
      <leafValues>
        3.6481335759162903e-01 -3.0062633752822876e-01</leafValues></_>
    <_>
      <internalNodes>
        0 -1 18624 -4.0227686986327171e-04</internalNodes>
      <leafValues>
        3.0386659502983093e-01 -3.1289696693420410e-01</leafValues></_>
    <_>
      <internalNodes>
        0 -1 14399 2.4904653429985046e-02</internalNodes>
      <leafValues>
        -1.5092837810516357e-01 7.5591337680816650e-01</leafValues></_>
    <_>
      <internalNodes>
        0 -1 6917 -2.6425772905349731e-01</internalNodes>
      <leafValues>
        -5.9741538763046265e-01 1.7507138848304749e-01</leafValues></_>
    <_>
      <internalNodes>
        0 -1 15421 2.5686942040920258e-02</internalNodes>
      <leafValues>
        -1.5237349271774292e-01 7.1450865268707275e-01</leafValues></_>
    <_>
      <internalNodes>
        0 -1 18367 -2.5843895855359733e-04</internalNodes>
      <leafValues>
        3.7046977877616882e-01 -2.1617111563682556e-01</leafValues></_>
    <_>
      <internalNodes>
        0 -1 13323 5.6621389376232401e-05</internalNodes>
      <leafValues>
        -3.1136244535446167e-01 2.6256191730499268e-01</leafValues></_>
    <_>
      <internalNodes>
        0 -1 12655 -1.3240322470664978e-02</internalNodes>
      <leafValues>
        4.7193089127540588e-01 -1.5719726681709290e-01</leafValues></_>
    <_>
      <internalNodes>
        0 -1 16225 1.1999448179267347e-04</internalNodes>
      <leafValues>
        -3.6618536710739136e-01 3.1045266985893250e-01</leafValues></_>
    <_>
      <internalNodes>
        0 -1 18446 3.2199983252212405e-04</internalNodes>
      <leafValues>
        -2.4529710412025452e-01 3.1391456723213196e-01</leafValues></_>
    <_>
      <internalNodes>
        0 -1 1652 5.2494430541992188e-01</internalNodes>
      <leafValues>
        1.0733392089605331e-01 -8.4250289201736450e-01</leafValues></_>
    <_>
      <internalNodes>
        0 -1 14588 1.7037344514392316e-04</internalNodes>
      <leafValues>
        -2.7303108572959900e-01 2.8101751208305359e-01</leafValues></_>
    <_>
      <internalNodes>
        0 -1 6588 -3.1267665326595306e-04</internalNodes>
      <leafValues>
        3.1435641646385193e-01 -2.3456119000911713e-01</leafValues></_>
    <_>
      <internalNodes>
        0 -1 18670 -4.8960681306198239e-04</internalNodes>
      <leafValues>
        3.5051989555358887e-01 -2.3143346607685089e-01</leafValues></_></weakClassifiers></stage3>
</opencv_storage>
