<?xml version="1.0"?>
<opencv_storage>
<stage8>
  <maxWeakCount>25</maxWeakCount>
  <stageThreshold>-7.7965879440307617e-01</stageThreshold>
  <weakClassifiers>
    <_>
      <internalNodes>
        0 -1 74967 -8.0375117249786854e-05</internalNodes>
      <leafValues>
        5.2984166145324707e-01 2.8355387970805168e-02</leafValues></_>
    <_>
      <internalNodes>
        0 -1 74474 -1.1363956582499668e-04</internalNodes>
      <leafValues>
        2.9952925443649292e-01 -2.2603316605091095e-01</leafValues></_>
    <_>
      <internalNodes>
        0 -1 72312 4.1317353025078773e-03</internalNodes>
      <leafValues>
        -1.3618013262748718e-01 4.8946431279182434e-01</leafValues></_>
    <_>
      <internalNodes>
        0 -1 71042 -2.0081641559954733e-04</internalNodes>
      <leafValues>
        2.4887649714946747e-01 -3.0339980125427246e-01</leafValues></_>
    <_>
      <internalNodes>
        0 -1 42630 4.7824736684560776e-02</internalNodes>
      <leafValues>
        -8.9583054184913635e-02 7.5760704278945923e-01</leafValues></_>
    <_>
      <internalNodes>
        0 -1 427 7.8621715307235718e-02</internalNodes>
      <leafValues>
        -2.1740680932998657e-01 2.9403337836265564e-01</leafValues></_>
    <_>
      <internalNodes>
        0 -1 24270 -3.5081768874078989e-03</internalNodes>
      <leafValues>
        4.1335082054138184e-01 -1.6164180636405945e-01</leafValues></_>
    <_>
      <internalNodes>
        0 -1 65434 -5.3493240557145327e-05</internalNodes>
      <leafValues>
        2.3844730854034424e-01 -2.5782933831214905e-01</leafValues></_>
    <_>
      <internalNodes>
        0 -1 77892 4.5705426600761712e-05</internalNodes>
      <leafValues>
        -2.2404862940311432e-01 2.8698462247848511e-01</leafValues></_>
    <_>
      <internalNodes>
        0 -1 30030 -3.8981693796813488e-03</internalNodes>
      <leafValues>
        3.9945489168167114e-01 -1.6602763533592224e-01</leafValues></_>
    <_>
      <internalNodes>
        0 -1 69115 8.0636125057935715e-03</internalNodes>
      <leafValues>
        -9.3038745224475861e-02 5.8630943298339844e-01</leafValues></_>
    <_>
      <internalNodes>
        0 -1 70067 3.6851372569799423e-03</internalNodes>
      <leafValues>
        -1.3480305671691895e-01 4.5639893412590027e-01</leafValues></_>
    <_>
      <internalNodes>
        0 -1 76591 3.6875609657727182e-04</internalNodes>
      <leafValues>
        -1.6707454621791840e-01 3.3583143353462219e-01</leafValues></_>
    <_>
      <internalNodes>
        0 -1 58429 1.4785230450797826e-04</internalNodes>
      <leafValues>
        -2.4188812077045441e-01 2.5318738818168640e-01</leafValues></_>
    <_>
      <internalNodes>
        0 -1 75924 -5.9419590979814529e-04</internalNodes>
      <leafValues>
        3.1079509854316711e-01 -1.9922524690628052e-01</leafValues></_>
    <_>
      <internalNodes>
        0 -1 68430 1.1347575113177299e-02</internalNodes>
      <leafValues>
        -1.8903599679470062e-01 3.4232106804847717e-01</leafValues></_>
    <_>
      <internalNodes>
        0 -1 20618 2.8349785134196281e-04</internalNodes>
      <leafValues>
        -1.9178803265094757e-01 3.1758242845535278e-01</leafValues></_>
    <_>
      <internalNodes>
        0 -1 74631 3.1703323125839233e-02</internalNodes>
      <leafValues>
        8.2315191626548767e-02 -7.9203742742538452e-01</leafValues></_>
    <_>
      <internalNodes>
        0 -1 70748 4.6545692021027207e-04</internalNodes>
      <leafValues>
        -2.5617486238479614e-01 2.4925735592842102e-01</leafValues></_>
    <_>
      <internalNodes>
        0 -1 25094 2.8081536293029785e-03</internalNodes>
      <leafValues>
        -1.9792383909225464e-01 3.1822618842124939e-01</leafValues></_>
    <_>
      <internalNodes>
        0 -1 76027 1.3597981887869537e-04</internalNodes>
      <leafValues>
        -2.2334654629230499e-01 2.9966986179351807e-01</leafValues></_>
    <_>
      <internalNodes>
        0 -1 25047 9.4890743494033813e-03</internalNodes>
      <leafValues>
        -7.1485362946987152e-02 8.3132702112197876e-01</leafValues></_>
    <_>
      <internalNodes>
        0 -1 67836 1.1721670627593994e-02</internalNodes>
      <leafValues>
        -8.0887153744697571e-02 6.2993216514587402e-01</leafValues></_>
    <_>
      <internalNodes>
        0 -1 69398 1.3210519682615995e-03</internalNodes>
      <leafValues>
        -1.2978823482990265e-01 4.3596282601356506e-01</leafValues></_>
    <_>
      <internalNodes>
        0 -1 78068 -1.1936191003769636e-04</internalNodes>
      <leafValues>
        2.3161208629608154e-01 -2.7259984612464905e-01</leafValues></_></weakClassifiers></stage8>
</opencv_storage>
