<?xml version="1.0"?>
<opencv_storage>
<stage7>
  <maxWeakCount>29</maxWeakCount>
  <stageThreshold>-8.6458075046539307e-01</stageThreshold>
  <weakClassifiers>
    <_>
      <internalNodes>
        0 -1 6917 3.4383833408355713e-02</internalNodes>
      <leafValues>
        4.6254682540893555e-01 -1.5602837502956390e-01</leafValues></_>
    <_>
      <internalNodes>
        0 -1 11821 3.1532970024272799e-04</internalNodes>
      <leafValues>
        -2.7390843629837036e-01 2.6641422510147095e-01</leafValues></_>
    <_>
      <internalNodes>
        0 -1 18251 -3.8790417602285743e-04</internalNodes>
      <leafValues>
        2.6015722751617432e-01 -2.4881896376609802e-01</leafValues></_>
    <_>
      <internalNodes>
        0 -1 16557 2.9581986018456519e-04</internalNodes>
      <leafValues>
        -2.5316470861434937e-01 2.4344587326049805e-01</leafValues></_>
    <_>
      <internalNodes>
        0 -1 18205 3.1804334139451385e-04</internalNodes>
      <leafValues>
        -2.0064973831176758e-01 2.8948622941970825e-01</leafValues></_>
    <_>
      <internalNodes>
        0 -1 15416 1.6140308231115341e-02</internalNodes>
      <leafValues>
        -1.3627435266971588e-01 5.3394204378128052e-01</leafValues></_>
    <_>
      <internalNodes>
        0 -1 9545 6.5834529697895050e-02</internalNodes>
      <leafValues>
        -1.7885191738605499e-01 3.6102783679962158e-01</leafValues></_>
    <_>
      <internalNodes>
        0 -1 6108 -6.9310524850152433e-05</internalNodes>
      <leafValues>
        2.5819945335388184e-01 -2.2659005224704742e-01</leafValues></_>
    <_>
      <internalNodes>
        0 -1 17066 6.7363760899752378e-04</internalNodes>
      <leafValues>
        -1.9649764895439148e-01 2.9015609622001648e-01</leafValues></_>
    <_>
      <internalNodes>
        0 -1 17966 -1.2165229418314993e-04</internalNodes>
      <leafValues>
        2.0551364123821259e-01 -2.7556312084197998e-01</leafValues></_>
    <_>
      <internalNodes>
        0 -1 7498 -6.8752223160117865e-04</internalNodes>
      <leafValues>
        3.0836093425750732e-01 -1.9088675081729889e-01</leafValues></_>
    <_>
      <internalNodes>
        0 -1 3415 2.6136523112654686e-02</internalNodes>
      <leafValues>
        -1.0218340903520584e-01 6.6047006845474243e-01</leafValues></_>
    <_>
      <internalNodes>
        0 -1 6957 1.1048975586891174e-01</internalNodes>
      <leafValues>
        -1.3508054614067078e-01 4.2071747779846191e-01</leafValues></_>
    <_>
      <internalNodes>
        0 -1 18719 1.3962062075734138e-04</internalNodes>
      <leafValues>
        -2.4738508462905884e-01 2.4763248860836029e-01</leafValues></_>
    <_>
      <internalNodes>
        0 -1 7334 -5.7745641097426414e-03</internalNodes>
      <leafValues>
        2.9626405239105225e-01 -2.0514029264450073e-01</leafValues></_>
    <_>
      <internalNodes>
        0 -1 11017 -6.3377449987456203e-04</internalNodes>
      <leafValues>
        3.3958613872528076e-01 -1.9298008084297180e-01</leafValues></_>
    <_>
      <internalNodes>
        0 -1 17545 -3.9941824972629547e-02</internalNodes>
      <leafValues>
        4.7649642825126648e-01 -1.0028837621212006e-01</leafValues></_>
    <_>
      <internalNodes>
        0 -1 13385 -7.2831630706787109e-02</internalNodes>
      <leafValues>
        -7.1057444810867310e-01 9.1616071760654449e-02</leafValues></_>
    <_>
      <internalNodes>
        0 -1 16427 2.2961508482694626e-02</internalNodes>
      <leafValues>
        -1.1686166375875473e-01 6.0833668708801270e-01</leafValues></_>
    <_>
      <internalNodes>
        0 -1 5068 2.1620254218578339e-01</internalNodes>
      <leafValues>
        -6.8824872374534607e-02 7.1528232097625732e-01</leafValues></_>
    <_>
      <internalNodes>
        0 -1 18041 3.8558520376682281e-02</internalNodes>
      <leafValues>
        -1.1877112835645676e-01 4.4344440102577209e-01</leafValues></_>
    <_>
      <internalNodes>
        0 -1 14590 3.7211918970569968e-04</internalNodes>
      <leafValues>
        -2.1387822926044464e-01 2.3884785175323486e-01</leafValues></_>
    <_>
      <internalNodes>
        0 -1 18202 -1.2446807231754065e-03</internalNodes>
      <leafValues>
        3.4715288877487183e-01 -1.6337200999259949e-01</leafValues></_>
    <_>
      <internalNodes>
        0 -1 10115 -3.1752936774864793e-04</internalNodes>
      <leafValues>
        2.7431797981262207e-01 -1.9531278312206268e-01</leafValues></_>
    <_>
      <internalNodes>
        0 -1 9473 -1.4695021510124207e-01</internalNodes>
      <leafValues>
        -7.9177790880203247e-01 7.4431374669075012e-02</leafValues></_>
    <_>
      <internalNodes>
        0 -1 18345 1.1001172475516796e-02</internalNodes>
      <leafValues>
        -1.2894245982170105e-01 4.5752394199371338e-01</leafValues></_>
    <_>
      <internalNodes>
        0 -1 18626 3.3310422440990806e-04</internalNodes>
      <leafValues>
        -2.1303243935108185e-01 2.5338780879974365e-01</leafValues></_>
    <_>
      <internalNodes>
        0 -1 11793 9.4673067331314087e-02</internalNodes>
      <leafValues>
        -6.1594750732183456e-02 8.5883277654647827e-01</leafValues></_>
    <_>
      <internalNodes>
        0 -1 9362 6.4979010494425893e-04</internalNodes>
      <leafValues>
        -1.7990958690643311e-01 2.9119387269020081e-01</leafValues></_></weakClassifiers></stage7>
</opencv_storage>
