<?xml version="1.0"?>
<opencv_storage>
<stage13>
  <maxWeakCount>31</maxWeakCount>
  <stageThreshold>-8.3821105957031250e-01</stageThreshold>
  <weakClassifiers>
    <_>
      <internalNodes>
        0 -1 6769 -4.8327781260013580e-02</internalNodes>
      <leafValues>
        -3.6250001192092896e-01 4.2689076066017151e-01</leafValues></_>
    <_>
      <internalNodes>
        0 -1 17482 3.3805094659328461e-02</internalNodes>
      <leafValues>
        -1.9065158069133759e-01 2.8089022636413574e-01</leafValues></_>
    <_>
      <internalNodes>
        0 -1 13091 1.3748777564615011e-04</internalNodes>
      <leafValues>
        -2.3614923655986786e-01 2.2555807232856750e-01</leafValues></_>
    <_>
      <internalNodes>
        0 -1 18309 -5.7375766336917877e-03</internalNodes>
      <leafValues>
        3.1197318434715271e-01 -1.6694439947605133e-01</leafValues></_>
    <_>
      <internalNodes>
        0 -1 17494 1.3747534831054509e-04</internalNodes>
      <leafValues>
        -2.4019841849803925e-01 2.2419135272502899e-01</leafValues></_>
    <_>
      <internalNodes>
        0 -1 9996 6.1430537607520819e-04</internalNodes>
      <leafValues>
        -2.1900480985641479e-01 2.1821442246437073e-01</leafValues></_>
    <_>
      <internalNodes>
        0 -1 18272 1.5806190669536591e-02</internalNodes>
      <leafValues>
        -1.4485648274421692e-01 3.4826999902725220e-01</leafValues></_>
    <_>
      <internalNodes>
        0 -1 3330 9.8256869241595268e-03</internalNodes>
      <leafValues>
        -1.0072802752256393e-01 4.0021136403083801e-01</leafValues></_>
    <_>
      <internalNodes>
        0 -1 13126 9.4472065567970276e-02</internalNodes>
      <leafValues>
        -8.2576476037502289e-02 5.8120256662368774e-01</leafValues></_>
    <_>
      <internalNodes>
        0 -1 16149 6.4724106341600418e-03</internalNodes>
      <leafValues>
        -1.5129718184471130e-01 3.5630622506141663e-01</leafValues></_>
    <_>
      <internalNodes>
        0 -1 17250 8.2981248851865530e-04</internalNodes>
      <leafValues>
        -2.1557594835758209e-01 2.5735524296760559e-01</leafValues></_>
    <_>
      <internalNodes>
        0 -1 16557 1.2231030268594623e-04</internalNodes>
      <leafValues>
        -2.6840901374816895e-01 2.0865611732006073e-01</leafValues></_>
    <_>
      <internalNodes>
        0 -1 17703 -3.0082816258072853e-02</internalNodes>
      <leafValues>
        3.5521799325942993e-01 -1.4899359643459320e-01</leafValues></_>
    <_>
      <internalNodes>
        0 -1 3209 7.4489533901214600e-02</internalNodes>
      <leafValues>
        -4.2427916079759598e-02 9.1812360286712646e-01</leafValues></_>
    <_>
      <internalNodes>
        0 -1 14283 2.4490267038345337e-02</internalNodes>
      <leafValues>
        -1.2354992330074310e-01 3.8343134522438049e-01</leafValues></_>
    <_>
      <internalNodes>
        0 -1 18014 5.5124633945524693e-04</internalNodes>
      <leafValues>
        -1.7074404656887054e-01 2.5864401459693909e-01</leafValues></_>
    <_>
      <internalNodes>
        0 -1 4655 -2.3593234363943338e-03</internalNodes>
      <leafValues>
        -3.6945179104804993e-01 1.1796255409717560e-01</leafValues></_>
    <_>
      <internalNodes>
        0 -1 777 5.7818062603473663e-02</internalNodes>
      <leafValues>
        -1.5831097960472107e-01 3.0484223365783691e-01</leafValues></_>
    <_>
      <internalNodes>
        0 -1 3575 -1.0103371459990740e-03</internalNodes>
      <leafValues>
        3.0661359429359436e-01 -2.1536308526992798e-01</leafValues></_>
    <_>
      <internalNodes>
        0 -1 366 -2.1217599511146545e-02</internalNodes>
      <leafValues>
        -3.7076914310455322e-01 1.3895377516746521e-01</leafValues></_>
    <_>
      <internalNodes>
        0 -1 5919 -3.3170980168506503e-04</internalNodes>
      <leafValues>
        2.5852766633033752e-01 -1.9372402131557465e-01</leafValues></_>
    <_>
      <internalNodes>
        0 -1 16698 5.6038727052509785e-04</internalNodes>
      <leafValues>
        -1.9300447404384613e-01 2.6901334524154663e-01</leafValues></_>
    <_>
      <internalNodes>
        0 -1 4 -2.1333443000912666e-03</internalNodes>
      <leafValues>
        -4.1320297122001648e-01 1.2298823893070221e-01</leafValues></_>
    <_>
      <internalNodes>
        0 -1 10272 -3.0660438351333141e-03</internalNodes>
      <leafValues>
        5.2501410245895386e-01 -9.9959440529346466e-02</leafValues></_>
    <_>
      <internalNodes>
        0 -1 17364 1.0929295967798680e-04</internalNodes>
      <leafValues>
        -1.8973104655742645e-01 2.5726914405822754e-01</leafValues></_>
    <_>
      <internalNodes>
        0 -1 9076 7.4493587017059326e-02</internalNodes>
      <leafValues>
        -1.0044260323047638e-01 5.0931996107101440e-01</leafValues></_>
    <_>
      <internalNodes>
        0 -1 12998 3.5555608570575714e-02</internalNodes>
      <leafValues>
        -3.9245482534170151e-02 9.0579354763031006e-01</leafValues></_>
    <_>
      <internalNodes>
        0 -1 10197 1.4571961946785450e-04</internalNodes>
      <leafValues>
        -2.7407330274581909e-01 1.8986313045024872e-01</leafValues></_>
    <_>
      <internalNodes>
        0 -1 15500 2.0422101020812988e-02</internalNodes>
      <leafValues>
        -1.0903827846050262e-01 4.7179949283599854e-01</leafValues></_>
    <_>
      <internalNodes>
        0 -1 16720 4.6192400157451630e-02</internalNodes>
      <leafValues>
        1.2964740395545959e-01 -3.7263956665992737e-01</leafValues></_>
    <_>
      <internalNodes>
        0 -1 18257 -1.1976907262578607e-03</internalNodes>
      <leafValues>
        2.9401800036430359e-01 -1.8141838908195496e-01</leafValues></_></weakClassifiers></stage13>
</opencv_storage>
