<?xml version="1.0"?>
<opencv_storage>
<stage5>
  <maxWeakCount>34</maxWeakCount>
  <stageThreshold>-7.1898770332336426e-01</stageThreshold>
  <weakClassifiers>
    <_>
      <internalNodes>
        0 -1 154569 -2.4692397564649582e-03</internalNodes>
      <leafValues>
        5.5795979499816895e-01 1.2660028040409088e-01</leafValues></_>
    <_>
      <internalNodes>
        0 -1 71410 5.6741725653409958e-02</internalNodes>
      <leafValues>
        -1.2821426987648010e-01 3.6774402856826782e-01</leafValues></_>
    <_>
      <internalNodes>
        0 -1 97451 9.5243230462074280e-03</internalNodes>
      <leafValues>
        -1.1285175383090973e-01 4.2891165614128113e-01</leafValues></_>
    <_>
      <internalNodes>
        0 -1 22663 -7.4441134929656982e-02</internalNodes>
      <leafValues>
        8.1541365385055542e-01 -8.7467871606349945e-02</leafValues></_>
    <_>
      <internalNodes>
        0 -1 150953 2.3395777679979801e-03</internalNodes>
      <leafValues>
        -1.9987587630748749e-01 2.3056508600711823e-01</leafValues></_>
    <_>
      <internalNodes>
        0 -1 157566 3.3867749152705073e-05</internalNodes>
      <leafValues>
        -1.9614948332309723e-01 2.3553590476512909e-01</leafValues></_>
    <_>
      <internalNodes>
        0 -1 92499 -5.6984391994774342e-03</internalNodes>
      <leafValues>
        4.2986300587654114e-01 -1.1848416924476624e-01</leafValues></_>
    <_>
      <internalNodes>
        0 -1 159279 -5.8757983148097992e-02</internalNodes>
      <leafValues>
        -6.9304716587066650e-01 8.6431607604026794e-02</leafValues></_>
    <_>
      <internalNodes>
        0 -1 37292 1.7305305227637291e-02</internalNodes>
      <leafValues>
        -2.1048861742019653e-01 2.4197697639465332e-01</leafValues></_>
    <_>
      <internalNodes>
        0 -1 98548 -2.0327582955360413e-02</internalNodes>
      <leafValues>
        -5.8529579639434814e-01 8.6077019572257996e-02</leafValues></_>
    <_>
      <internalNodes>
        0 -1 120586 9.6689872443675995e-03</internalNodes>
      <leafValues>
        -8.1534743309020996e-02 6.9251102209091187e-01</leafValues></_>
    <_>
      <internalNodes>
        0 -1 161539 -9.9423099309206009e-03</internalNodes>
      <leafValues>
        -6.2431424856185913e-01 8.5675254464149475e-02</leafValues></_>
    <_>
      <internalNodes>
        0 -1 146144 2.7523878961801529e-03</internalNodes>
      <leafValues>
        -1.2220063805580139e-01 3.5636344552040100e-01</leafValues></_>
    <_>
      <internalNodes>
        0 -1 146648 6.4369183965027332e-03</internalNodes>
      <leafValues>
        -4.5312799513339996e-02 8.8095110654830933e-01</leafValues></_>
    <_>
      <internalNodes>
        0 -1 88529 1.9895629957318306e-02</internalNodes>
      <leafValues>
        -8.4633909165859222e-02 4.6414306759834290e-01</leafValues></_>
    <_>
      <internalNodes>
        0 -1 139148 -7.2341208579018712e-05</internalNodes>
      <leafValues>
        2.5429376959800720e-01 -2.0242334902286530e-01</leafValues></_>
    <_>
      <internalNodes>
        0 -1 126697 -1.4698736777063459e-04</internalNodes>
      <leafValues>
        -3.0106452107429504e-01 1.6139255464076996e-01</leafValues></_>
    <_>
      <internalNodes>
        0 -1 159433 6.5651387558318675e-05</internalNodes>
      <leafValues>
        -1.9274356961250305e-01 2.4767632782459259e-01</leafValues></_>
    <_>
      <internalNodes>
        0 -1 126855 1.4137778431177139e-02</internalNodes>
      <leafValues>
        -1.3521102070808411e-01 3.1130146980285645e-01</leafValues></_>
    <_>
      <internalNodes>
        0 -1 101269 5.6653134524822235e-03</internalNodes>
      <leafValues>
        -7.7585615217685699e-02 5.4919946193695068e-01</leafValues></_>
    <_>
      <internalNodes>
        0 -1 32492 4.1398875415325165e-02</internalNodes>
      <leafValues>
        -1.2203080207109451e-01 3.2944637537002563e-01</leafValues></_>
    <_>
      <internalNodes>
        0 -1 134524 -3.4314401447772980e-02</internalNodes>
      <leafValues>
        -2.9401716589927673e-01 1.4076729118824005e-01</leafValues></_>
    <_>
      <internalNodes>
        0 -1 111222 3.0682139098644257e-02</internalNodes>
      <leafValues>
        -1.3438160717487335e-01 3.4557643532752991e-01</leafValues></_>
    <_>
      <internalNodes>
        0 -1 45169 -1.9415913149714470e-02</internalNodes>
      <leafValues>
        7.2900372743606567e-01 -5.9988252818584442e-02</leafValues></_>
    <_>
      <internalNodes>
        0 -1 147267 -2.1111522801220417e-04</internalNodes>
      <leafValues>
        -2.8389838337898254e-01 1.5074145793914795e-01</leafValues></_>
    <_>
      <internalNodes>
        0 -1 148443 2.5258950889110565e-02</internalNodes>
      <leafValues>
        -9.0378709137439728e-02 5.0845748186111450e-01</leafValues></_>
    <_>
      <internalNodes>
        0 -1 157664 3.7384955212473869e-03</internalNodes>
      <leafValues>
        -1.1426112800836563e-01 4.2231619358062744e-01</leafValues></_>
    <_>
      <internalNodes>
        0 -1 159003 -1.0891399870160967e-04</internalNodes>
      <leafValues>
        2.2843550145626068e-01 -2.0309811830520630e-01</leafValues></_>
    <_>
      <internalNodes>
        0 -1 160763 -2.4111536331474781e-03</internalNodes>
      <leafValues>
        -4.6731764078140259e-01 1.0316749662160873e-01</leafValues></_>
    <_>
      <internalNodes>
        0 -1 11491 3.5045016556978226e-03</internalNodes>
      <leafValues>
        -6.3109233975410461e-02 7.7221345901489258e-01</leafValues></_>
    <_>
      <internalNodes>
        0 -1 151520 1.3929763808846474e-03</internalNodes>
      <leafValues>
        -1.8395735323429108e-01 2.3212964832782745e-01</leafValues></_>
    <_>
      <internalNodes>
        0 -1 18826 -1.1728584067896008e-03</internalNodes>
      <leafValues>
        -4.0596261620521545e-01 1.1221162974834442e-01</leafValues></_>
    <_>
      <internalNodes>
        0 -1 142556 6.9331124424934387e-02</internalNodes>
      <leafValues>
        6.4242720603942871e-02 -6.5466362237930298e-01</leafValues></_>
    <_>
      <internalNodes>
        0 -1 137575 -1.1939818505197763e-03</internalNodes>
      <leafValues>
        -3.0694589018821716e-01 1.3552126288414001e-01</leafValues></_></weakClassifiers></stage5>
</opencv_storage>
