<?xml version="1.0"?>
<opencv_storage>
<stage7>
  <maxWeakCount>22</maxWeakCount>
  <stageThreshold>-9.5501381158828735e-01</stageThreshold>
  <weakClassifiers>
    <_>
      <internalNodes>
        0 -1 21103 -5.9167636209167540e-05</internalNodes>
      <leafValues>
        5.6373935937881470e-01 8.0745339393615723e-02</leafValues></_>
    <_>
      <internalNodes>
        0 -1 40327 7.1750521659851074e-02</internalNodes>
      <leafValues>
        -2.0625780522823334e-01 3.5357382893562317e-01</leafValues></_>
    <_>
      <internalNodes>
        0 -1 66803 -2.0050056627951562e-04</internalNodes>
      <leafValues>
        3.3292567729949951e-01 -2.2126786410808563e-01</leafValues></_>
    <_>
      <internalNodes>
        0 -1 46819 -1.0730585083365440e-02</internalNodes>
      <leafValues>
        5.1263475418090820e-01 -1.8356439471244812e-01</leafValues></_>
    <_>
      <internalNodes>
        0 -1 51631 -2.4330818632734008e-05</internalNodes>
      <leafValues>
        3.4159448742866516e-01 -2.3230795562267303e-01</leafValues></_>
    <_>
      <internalNodes>
        0 -1 13469 1.0483586043119431e-01</internalNodes>
      <leafValues>
        -1.8900705873966217e-01 4.6062904596328735e-01</leafValues></_>
    <_>
      <internalNodes>
        0 -1 7604 2.5345225367345847e-05</internalNodes>
      <leafValues>
        -2.6712277531623840e-01 2.6095759868621826e-01</leafValues></_>
    <_>
      <internalNodes>
        0 -1 24371 7.2744235396385193e-02</internalNodes>
      <leafValues>
        1.3212412595748901e-01 -5.5850744247436523e-01</leafValues></_>
    <_>
      <internalNodes>
        0 -1 77410 -4.9373811634723097e-05</internalNodes>
      <leafValues>
        2.9376313090324402e-01 -2.7802234888076782e-01</leafValues></_>
    <_>
      <internalNodes>
        0 -1 77985 4.5118399430066347e-04</internalNodes>
      <leafValues>
        -1.8186035752296448e-01 3.8723042607307434e-01</leafValues></_>
    <_>
      <internalNodes>
        0 -1 9641 7.5022517703473568e-03</internalNodes>
      <leafValues>
        -1.6040697693824768e-01 4.1252762079238892e-01</leafValues></_>
    <_>
      <internalNodes>
        0 -1 53669 -4.7942550736479461e-05</internalNodes>
      <leafValues>
        3.2046994566917419e-01 -2.3071607947349548e-01</leafValues></_>
    <_>
      <internalNodes>
        0 -1 70796 2.4381031835218892e-05</internalNodes>
      <leafValues>
        -2.7984815835952759e-01 2.4648757278919220e-01</leafValues></_>
    <_>
      <internalNodes>
        0 -1 70009 -1.5759970992803574e-02</internalNodes>
      <leafValues>
        8.1176841259002686e-01 -9.3454264104366302e-02</leafValues></_>
    <_>
      <internalNodes>
        0 -1 1500 -2.8585863765329123e-03</internalNodes>
      <leafValues>
        -4.7034695744514465e-01 1.7697720229625702e-01</leafValues></_>
    <_>
      <internalNodes>
        0 -1 76025 1.1472819460323080e-04</internalNodes>
      <leafValues>
        -2.7868559956550598e-01 2.4626715481281281e-01</leafValues></_>
    <_>
      <internalNodes>
        0 -1 78274 -4.7738027205923572e-05</internalNodes>
      <leafValues>
        2.8763160109519958e-01 -2.3520004749298096e-01</leafValues></_>
    <_>
      <internalNodes>
        0 -1 68471 7.2333989664912224e-03</internalNodes>
      <leafValues>
        -1.9358584284782410e-01 3.4352833032608032e-01</leafValues></_>
    <_>
      <internalNodes>
        0 -1 6385 2.4330818632734008e-05</internalNodes>
      <leafValues>
        -2.3893986642360687e-01 2.7834418416023254e-01</leafValues></_>
    <_>
      <internalNodes>
        0 -1 30740 2.3657015990465879e-03</internalNodes>
      <leafValues>
        -1.8001152575016022e-01 3.7986439466476440e-01</leafValues></_>
    <_>
      <internalNodes>
        0 -1 53867 -5.2829142077825963e-05</internalNodes>
      <leafValues>
        2.7046695351600647e-01 -2.8367176651954651e-01</leafValues></_>
    <_>
      <internalNodes>
        0 -1 70970 1.2700060324277729e-04</internalNodes>
      <leafValues>
        -2.4558843672275543e-01 3.1525301933288574e-01</leafValues></_></weakClassifiers></stage7>
</opencv_storage>
