<?xml version="1.0"?>
<opencv_storage>
<stage5>
  <maxWeakCount>20</maxWeakCount>
  <stageThreshold>-6.7206388711929321e-01</stageThreshold>
  <weakClassifiers>
    <_>
      <internalNodes>
        0 -1 3181 1.4805570244789124e-01</internalNodes>
      <leafValues>
        4.1774192452430725e-01 -6.1818182468414307e-01</leafValues></_>
    <_>
      <internalNodes>
        0 -1 75927 1.8117539002560079e-04</internalNodes>
      <leafValues>
        -2.1074000000953674e-01 4.3121325969696045e-01</leafValues></_>
    <_>
      <internalNodes>
        0 -1 78420 -2.4586135987192392e-04</internalNodes>
      <leafValues>
        2.5897189974784851e-01 -2.8713598847389221e-01</leafValues></_>
    <_>
      <internalNodes>
        0 -1 39150 3.9994160761125386e-04</internalNodes>
      <leafValues>
        -2.4474355578422546e-01 3.3817735314369202e-01</leafValues></_>
    <_>
      <internalNodes>
        0 -1 77166 -2.1487625781446695e-04</internalNodes>
      <leafValues>
        3.1093990802764893e-01 -2.8678435087203979e-01</leafValues></_>
    <_>
      <internalNodes>
        0 -1 72623 3.1366583425551653e-03</internalNodes>
      <leafValues>
        -1.8771766126155853e-01 4.2663088440895081e-01</leafValues></_>
    <_>
      <internalNodes>
        0 -1 15287 -2.2962504625320435e-01</internalNodes>
      <leafValues>
        -6.6010844707489014e-01 1.4530600607395172e-01</leafValues></_>
    <_>
      <internalNodes>
        0 -1 76282 -1.3895689044147730e-03</internalNodes>
      <leafValues>
        3.5004162788391113e-01 -2.4775564670562744e-01</leafValues></_>
    <_>
      <internalNodes>
        0 -1 714 1.1656981706619263e-01</internalNodes>
      <leafValues>
        -2.5496941804885864e-01 3.0128809809684753e-01</leafValues></_>
    <_>
      <internalNodes>
        0 -1 67958 6.2408027588389814e-05</internalNodes>
      <leafValues>
        -2.7030807733535767e-01 2.9496347904205322e-01</leafValues></_>
    <_>
      <internalNodes>
        0 -1 26187 -3.4069423563778400e-03</internalNodes>
      <leafValues>
        3.3989965915679932e-01 -2.2789248824119568e-01</leafValues></_>
    <_>
      <internalNodes>
        0 -1 26734 2.4443622678518295e-02</internalNodes>
      <leafValues>
        -1.8144315481185913e-01 4.1260546445846558e-01</leafValues></_>
    <_>
      <internalNodes>
        0 -1 32934 -2.6921785320155323e-04</internalNodes>
      <leafValues>
        3.7836632132530212e-01 -2.0410886406898499e-01</leafValues></_>
    <_>
      <internalNodes>
        0 -1 12188 4.3123257346451283e-03</internalNodes>
      <leafValues>
        -1.6241681575775146e-01 4.8229160904884338e-01</leafValues></_>
    <_>
      <internalNodes>
        0 -1 72212 -4.0398599230684340e-04</internalNodes>
      <leafValues>
        3.4608876705169678e-01 -2.2921821475028992e-01</leafValues></_>
    <_>
      <internalNodes>
        0 -1 76115 -2.6045476261060685e-05</internalNodes>
      <leafValues>
        2.7985182404518127e-01 -2.5532767176628113e-01</leafValues></_>
    <_>
      <internalNodes>
        0 -1 49856 2.5586504489183426e-04</internalNodes>
      <leafValues>
        -2.4150444567203522e-01 3.1521299481391907e-01</leafValues></_>
    <_>
      <internalNodes>
        0 -1 66947 -3.2041384838521481e-03</internalNodes>
      <leafValues>
        4.6325218677520752e-01 -1.6825816035270691e-01</leafValues></_>
    <_>
      <internalNodes>
        0 -1 38106 3.0623354017734528e-02</internalNodes>
      <leafValues>
        -1.6237737238407135e-01 4.1026860475540161e-01</leafValues></_>
    <_>
      <internalNodes>
        0 -1 2220 2.8866164386272430e-02</internalNodes>
      <leafValues>
        -1.8914750218391418e-01 3.8679882884025574e-01</leafValues></_></weakClassifiers></stage5>
</opencv_storage>
